-0.07096850369442265,0.07599269353418253,-0.08373828827014876,0.02456928154634386,-0.2576044942213444,0.061619301567810605,0.1564346973481642,0.016945353367769114,0.02575898906267808,-0.06644055967076838,0.06983695081539436,0.04860374606297149,-0.05902563347984069,0.0579827385991369,-0.0275091003926001,-0.0490046923958216,0.019489589454732906,0.021933848520465017,0.08964041041695817,-0.060394907494323524,-0.2449582250960353,0.15251097932097898,-0.02497305527246589,0.08831137881262019,-0.1040293723938508,0.04588448830977865,0.021466737709261635,-0.10598134346918489,-0.09560918489337877,0.0785204040422039,-0.09501858126461032,-0.14828360527691511,-0.058883387583435955,-0.0500244181550058,0.11832002451733803,-0.15670784200911209,0.03367138178675672,0.05752876289435959,-0.042931735913249454,-0.016280705270931835,-0.05572925940065915,0.03489066375142705,0.032319455718292464,0.057768237217941304,-0.0031866943422765707,-0.07789019242297146,0.26005008469759955,-0.10373737149209175,-0.19819977820872198,0.10717110530224494,-0.048682623535316265,-0.10449840740963917,0.06740002237170725,0.004697084158348767,-0.143541930652159,-0.03430281014120133,0.16551127260075815,0.21457396809826368,-0.09240838984686832,0.1640441009769368,-0.26724994058796286,0.09165654638388979,0.061900311450159,0.06503866680312433
0.03602417861290176,0.0608723318654622,0.13721862982827807,0.002520384957804364,-0.054534450771965184,-0.16385981316840212,-0.13909529365781625,0.07568186825423014,-0.01674577733406901,-0.10972410595386782,0.015863123798669602,0.17118063427018199,0.06773723931476439,-0.1184744303398827,-0.16176168056641796,0.029037953826366383,0.0924928052454018,-0.061525962728767904,-0.0017217603015351347,0.016419047803213484,0.12021329020405898,-0.08523802719702678,-0.1351466815351876,-0.07158628253988848,0.03370773852438733,0.03013315408634686,-0.17221147535940273,-0.02092783797210704,0.05780500808378608,-0.06247974669176365,-0.1180758462143266,-0.12389541692908024,0.23743951284518944,0.034315745970847286,0.01867406816094568,-0.03257325451210721,-0.01686201052608967,0.04217296547180975,-0.01867613314538799,0.0009655900470177412,0.11930000120792934,-0.02945135224395939,0.027476743624139977,-0.21627687567562562,-0.01719549466058588,0.12250159601184603,0.08192500945877812,0.03037017463430853,0.04443695990415292,-0.24851825855054788,0.10546170179826451,-0.05428027646356901,0.01114780859936465,-0.21181805347754412,-2.9687388624042298e-05,-0.09539132674727197,-0.014280402506367286,-0.0993104546219914,0.15450057996860544,0.0004277350632965274,-0.0007659652914688356,-0.08246059492589632,0.06656462832416508,-0.16569488119939002
-0.04933279583760223,-0.20531261150339739,0.07498782752471649,-0.09319293445049188,-0.06753731467485423,0.12231304197263615,0.09374652186478734,0.03853568925211737,-0.11800790865979534,-0.0431621615261944,0.014682634024491542,-0.19322521239449084,-0.03346966866264047,-0.12991407194658305,-0.050691993635340896,0.08158204234027366,0.2147930967980487,-0.07277432108603514,0.03268925619395628,0.04003648207729116,0.008607574816437875,-0.03661757115989633,-0.10049971927697206,0.0813634575327401,-0.01593193863334084,0.007917969223550729,-0.0219292744562712,0.1068265319443932,0.02776397015962266,0.10478257277365365,-0.017789857643530162,0.05343564384939738,0.08356560260834806,0.11230650746160126,-0.11261155111053714,0.008444545541771443,0.03351999246149245,0.04482733345735884,-0.014175057937304595,-0.08991394372269038,-0.020711435940756272,-0.12654139619396704,-0.2373477084117448,0.06773387190550063,-0.17074635813815478,0.095802255369533,-0.014825793373281413,0.039088816142618554,-0.0036303702174054226,-0.03139071229275554,-0.09437234482475415,0.08125453354042464,0.03820338608891345,-0.1633600110171034,-0.031142978892446216,-0.001785191162861197,-0.062420316886180355,-0.0880217259411306,-0.09877025544932874,-0.10179630705216719,-0.08123521284533425,0.06629681962348412,-0.05792857121267089,0.03630890165802798
0.06180571183279293,0.08322016627429168,0.016021700154252083,0.07999124872729672,0.037333457352510854,0.12478457291290551,-0.21033325382464355,-0.04671457703413707,-0.21119921618151052,0.16972151191872165,-0.08193926404805167,0.04929996619147377,0.015208406451473547,0.01160171685611263,0.1209407391488528,0.0017763614644706782,-0.17165073432996042,0.05565211722064764,0.04437094702361524,0.01749453158461686,0.06365454502635569,0.02527444461538211,-0.02931942396045006,0.04349098833470061,-0.085633162087903,-0.0015788986191316045,-0.06661470198723397,0.17663344554616894,0.06806703442797023,-0.11995136040961661,-0.014123299499416753,0.039729142796988,0.13435286524549353,-0.004440023819825464,-0.06100022673848729,0.0050383327661854445,-0.1767280193586125,-0.13527637562611092,0.00121932476348444,-0.005993373496560031,-0.014375039190796843,0.13592953552328751,-0.07583472323220439,-0.03728620580701368,0.11915219220644169,0.11666178138532264,0.09724708221335995,0.02714105703390591,0.23025911921393205,0.14735041925544148,0.03225407315628067,0.03354175961330685,-0.009874815916435816,0.10525707811956786,0.13409518253392236,-0.0708494177789533,0.0005924421631437588,-0.017427853785321294,0.09389346509470792,0.12489776017613939,0.05602558350023493,0.059631193832502274,0.2167707774070743,-0.01760557415459779
0.19238045559857042,0.08572007990310726,-0.14719870636508176,0.04846889092854685,0.10070905406995656,-0.049511066414293446,0.1234972891789623,0.007024345036493279,-0.0020985910063337702,-0.04589476759363747,-0.19163329692188408,-0.011788203796725674,0.17835404775034988,-0.03138873263008817,0.013639908005611968,-0.07510559186828296,0.08287669026292753,-0.011295717218687492,0.08944246582740949,-0.021363760300985114,-0.2034727301794752,0.02655744173843907,-0.04313252280981564,-0.21098669133576303,-0.092339692793936,0.024971685949803753,-0.14220034714046834,0.025655002291952663,0.03354075161845736,-0.13323281443203194,0.06982941356693838,-0.1366413347705577,0.032952354980783,0.008024537016382097,0.0038917283863113307,-0.12770955914885798,-0.1582588499081126,0.08625941692484515,-0.04014220851667472,0.07924768401521687,0.1415104465989264,0.14720997150336124,-0.007514361527587825,0.01692601668861832,-0.03682142618121111,-0.0655339328835822,-0.07171044556045143,0.18755175831803267,-0.06928284052853945,0.01234578396137314,-0.01619502838798383,0.030086185990470096,-0.024881282230131016,-0.04468858621366492,-0.016373619196604055,0.014645024325193143,-0.05936463389068219,-0.054350066210971194,0.1465439924884692,0.11920774042791404,0.047499469196838486,-0.00030107628934626017,0.09624206353045425,0.16205423094151258
0.0034927259418096658,-0.02345584125584691,0.1325813497604735,0.06779999842279061,0.12380633931950072,-0.045252892683184616,0.026146441199175842,-0.0646992692122859,0.07996104925937567,-0.1426402098962254,0.05056974077292381,-0.026346688238095772,-0.09174119314265632,0.06002098626894997,-0.05335760523223474,-0.044642445961182504,-0.07521717858354254,-0.047538985302217625,-0.023285600972922524,0.07694906121758865,0.15133405582995305,0.07636183015089415,-0.14209716780009934,0.14088660785419221,0.17187209513337912,-0.01592213141622978,0.012942178000115493,-0.03750156237394575,-0.17067126724535758,-0.12569982682469683,0.11688808962371702,0.10581853983171402,0.13218932220639207,-0.1549508840528563,0.043033095197348326,-0.048305059120931436,0.07885587208879205,-0.06755617152163568,0.12105237888275396,-0.039501002052118636,0.13911661596375857,0.06094013977677457,0.06894210292934506,-0.06015019497882307,-0.09777389240454687,-0.02198159802796941,0.030861044132983628,-0.04975905257744677,0.005448504425080441,-0.013613355884635149,0.036123750562618386,-0.1075028847718752,0.014832801803473683,0.037006570156134504,-0.11983362855895166,0.10896287728382455,-0.01303692365807848,-0.054064583546967464,0.07468890073803362,-0.14739222553171102,-0.04053309476429358,0.2706873851157597,0.06211098107563853,-0.005715421140662643
-0.2631224796328228,0.19215321879089778,0.014954992908397455,-0.0873263511173961,0.16221592650067618,0.08131002451170659,0.23234190898821613,0.07359553445798976,-0.002060148992948627,0.17906615086313066,-0.14702427096275159,-0.03476626826495426,0.02669201954466062,0.13057029005434875,-0.08273958431214246,0.022696461605201397,-0.05784120359715389,0.12404806070873536,0.1757444610749758,-0.041103900548346284,-0.26767993124570716,-0.13355573227111447,0.20852490448987912,0.0758808841673863,-0.1371200636807739,0.20591582438497344,0.05315351516258618,0.05541423117997416,0.02784970544664187,0.14934785569223757,-0.07788460564825592,0.011191329738717065,-0.06714012796081838,0.006740237042868873,0.031049798230785953,-0.19551875360323337,-0.123352987717401,-0.1533154875891035,-0.0516233252491076,0.07744864232528642,-0.09836140537235355,-0.10657768967018658,-0.0027019585091281207,-0.20950095736403462,-0.11374709794850274,-0.031782852540490424,0.09651349461442012,-0.08502631003182547,0.08815414337120561,0.08477336867344158,0.040122181359834246,-0.07683917675905569,0.11258950335827747,0.07892042343713197,0.09918004485956022,0.03745558811635682,-0.09427192341175189,0.011659988275887042,0.1804326223175292,-0.08868293435430502,0.04388412036309653,-0.029186712006459947,-0.011681967817534895,0.07884721562074987
0.15244791399972146,-0.02318222620295763,0.03540095782452664,0.027518229435491526,-0.007780425126527952,-0.15468959446672081,0.03140659756614913,-0.010103569998498242,0.12455441889900594,0.15954559097684848,-0.08707935499063603,0.13168543883651404,-0.20114806333940854,-0.03099085725498767,0.08663324941088155,-0.19826117734295404,0.1323328311476167,0.07937468241134239,0.1208185036561746,-0.03895018641983327,-0.02835409396517474,-0.17397491290149383,-0.2952675726802125,0.018603689537459667,0.11096819693797395,-0.12020230024103624,-0.2435218982289968,-0.013386865445711188,0.03852784840967238,-0.015236863665091605,0.09382332835003365,0.05604751128561258,0.2127950289256039,0.10011635315362617,-0.019636803588478833,-0.12595236401925847,-0.1075030461808556,-0.11637459774523205,0.0760404484452874,0.2321750160142599,0.07840423962989987,-0.10239129088484666,0.0372666012450751,0.09518610675700263,0.06048699755143775,0.16496121860035234,-0.102301790656796,0.19834722670922847,0.05918433486868763,-0.009062643824634528,0.030921554031422722,-0.12029609139241251,0.048823043352087314,-0.0373760107690434,0.09206935950595929,-0.0614626165948201,0.016656357351855704,-0.01962238371789652,0.04749001586482106,-0.026571038513454326,0.0019058538107268271,0.039159958802274686,-0.12937417334108428,-0.07601871811729739
0.06996854852963133,-0.06831226422394311,0.05024597123875862,0.07911252073092848,-0.02780296415191773,0.01444207733374223,0.10899558002697496,0.13844584323860995,0.15647533690871498,0.10363358739847801,0.03360223544970644,0.09625995780363668,-0.0045374906131255095,-0.07304764900560343,0.03379586201022724,-0.12082407409755154,0.1362593975292072,0.03606553097822291,0.056063918878643926,-0.10463674522926199,0.0364196923096775,-0.023197521193809436,-0.1562291095360123,0.0354120948468421,-0.042863022383435354,0.07245937805929772,-0.12307724688183896,-0.08715860922915203,0.1314596080042286,0.08659142661013582,-0.015485331308666592,-0.022839721307619458,0.04612814951892572,-0.10616333474305173,0.04842360210883596,-0.08494238719435226,-0.025285163518906008,-0.09878895916861005,-0.04384951285689162,-0.0989404247531363,0.09402964960983595,-0.11142776102614121,-0.05182874262222967,0.001906914511729022,-0.04069928368382276,0.05958773142125023,-0.027188849773307967,0.10601818918256461,-0.06522580468642261,-0.009528638007051046,0.054338492273134475,-0.1246050283193956,-0.188969007091021,-0.16448801367692487,-0.11082520360979964,-0.02543791782661093,-0.08706111444496406,0.04302511526744046,-0.10643237543584082,0.055148490787306215,0.007322638895343444,0.057992531050640665,-0.11841907159086829,0.007387712150774075
-0.02009323735571408,-0.039741734740222474,0.13992598180176363,0.12346477747136562,-0.08313265522163626,-0.056784206206695775,-0.08526540599828242,-0.1865480907481757,-0.09949992148455868,-0.03488203896355854,0.02581076368521067,-0.20687350656435993,0.07490476417388701,0.10429273454041371,-0.035016739957042096,-0.04721423428775204,-0.10924065668654576,0.042833496561587615,0.10777692338264691,0.1943561692913609,-0.19867097800017236,-0.06690069798550032,0.01595487218546879,-0.04277717569152008,-0.14521298195299287,0.006960096931162528,0.057046595039831165,0.04020744079056369,0.0897354564069122,0.11778379284800514,0.040899805689652825,-0.02715101869728024,-0.24428009899757175,-0.08603056800579433,0.06921941215603285,0.0895430804045381,-0.05997207089793383,0.013543049419233117,-0.042448123831853986,0.0693311928535534,0.2061723069765361,-0.04046341501261232,0.10299783809711048,0.12783469144087542,0.10519395676348918,0.05981428243009787,-0.0073277340124692815,0.12436969386946983,0.16085510691541427,-0.02683652331946759,0.005523507534126188,0.03457979425189227,0.09203136241236813,-0.1263770346665245,-0.19681047816125613,0.02330132188148451,0.01611981427813758,-0.007163702682373509,0.2787762445819098,0.08594770074688086,0.0245388227798441,0.12315193315947855,-0.04269031389283764,-0.18013855135596288
-0.09744303998971202,-0.04601389822551994,-0.09180642996520824,-0.010354348229863183,0.027283976084926245,0.11335497592684783,0.04561230225582988,0.15422426420426963,-0.052678608714084973,0.11733829771662685,-0.04574905439693505,0.23509445058684061,0.09132525402331589,-0.1038438043503529,-0.052109761308842706,0.019364962514778997,-0.03272285692449883,0.001440865615940608,0.01055992779210637,0.2640366462828123,-0.0200667814682759,0.06192970595004406,0.013127501112436941,-0.16711063175998445,0.14017257011416226,-0.06689640668429024,-0.06478265982035879,-0.10885878591258574,0.15488012656022354,-0.15663065864669934,-0.03237269496559588,-0.2343763877281081,-0.055357557304809825,-0.1994848542423435,-0.026122913958076456,-0.056965725408949335,-0.2522498268167079,0.0134631294658014,0.13268877148414435,-0.010263334457544633,-0.035826521072873,-0.07620478777223122,0.12386877777120334,-0.0006297169526320242,-0.016221968174070508,-0.1554366725293418,0.06373949278619633,0.03685969522061674,0.1176303983586453,-0.08062416509889249,-0.05502775790405376,-0.07671846707463176,0.0017548827784186934,0.04682531246971217,-0.13049285378603187,-0.014266396896584042,0.0062383509330888945,-0.019149327173980987,0.12847296727129148,-0.005465430861664377,0.008420758537353606,-0.0403638896570812,-0.12312914300166143,0.19403952093954424
0.040820194752358985,0.07842156249327076,0.1228613530041186,-0.02138372821618658,-0.081133143876713,0.16823505673526898,-0.11683003405622608,0.01162530675380365,0.17411416963728396,-0.06650228930218544,0.053646503653559566,0.12695015059307088,0.019909422908686084,-0.13632217944205494,-0.1072069618653349,-0.094604459383007,0.21911468925612262,0.05303816160981498,0.1401551920509971,0.08876166500998192,0.10446037887634588,0.09496445276422444,0.015053103093379809,-0.0466316690693802,-0.057222205723749,0.26090493200255904,0.07547913294290404,0.11944305993352436,-0.13195982084620952,-0.004585889926645403,0.031729015798093424,-0.058772646451993815,-0.04695574707594854,-0.02523841701079041,-0.024924045965662764,-0.0605085294864508,-0.006938924775684684,0.0800946538032553,0.031099495324210993,0.1256489267428713,-0.058990102363576574,0.10860086681940018,0.0010053177332334919,0.012653733011462913,0.036477150269882935,0.09901167579746291,-0.13843946961394668,-0.10036911807646093,0.19804753835561592,0.06605418455746674,0.020126726541678405,0.06414884553441834,0.09330159250718241,0.1386139779835601,0.12076209171203599,-0.08515238098357934,-0.1396249458967445,0.034935905320087814,-0.07323996472029551,0.07370484976878107,0.03909842686259053,0.13185858369414755,-0.06956312710064323,0.030177984854279128
0.08387066704677781,-0.0014360017977652793,0.009249075891102665,-0.09140032112705404,0.04268771131104825,-0.057924478944723995,-0.01346184097091572,0.11277552203825864,0.12558936691530018,-0.142302164452737,-0.028628443302346658,0.06373278890798188,0.07203476988057184,-0.13288138558589252,0.10121221287917603,0.03212734546738164,0.03128853293176239,0.08597931772717227,-0.06548265950571126,-0.1914542717108184,0.001709980071782051,-0.021964899586039584,0.010261197393113906,0.04377035441816131,0.012516260488021456,0.06271344928253057,-0.08676832665630446,0.0026328191244136268,-0.03962896462715332,0.09940711463647418,-0.11655558233755806,-0.09294341637034564,-0.1939873116270143,-0.07886709353072718,-0.10620570031488503,-0.13402951773235336,-0.18243017254143756,0.11282469014597477,-0.08275347149223922,-0.02951985797388513,0.06753632286847853,0.1662972355094046,0.020154399479637486,0.16661212753567664,0.010817659387902231,-0.009873978594826097,-0.08288444221086466,0.0013932021653886668,-0.006240378210197925,-0.08715808618749764,0.08830512795736684,-0.16830723214666177,0.059068061723118986,0.03548467969663396,-0.013129172061220036,-0.10446607053267548,0.013925289732249749,0.033477180651979035,-0.09773665281183957,0.0032451889639361804,-0.09040048866690727,-0.047850850540662404,-0.06862896401959903,0.08755893572575428
0.11513046812135097,0.061416347393070496,0.07985102622469109,-0.08917887134017807,0.08844956881899274,-0.0005080596824147011,-0.023352040336952314,0.030804585552326503,0.10208700994224087,-0.09560232904847976,-0.10856237674722054,0.07349514564187852,0.05823244588356438,-0.054048380804662226,0.019737206856480487,-0.0721384945509904,0.00962186443885696,0.1741972374112814,-0.13197691022327537,-0.0065418102188959,-0.08991418705543702,0.0156319674200136,0.09668368279457218,0.06302368671632883,0.013251631727522431,0.04050001507538628,0.07214714726725766,0.0851679138786325,-0.03312676958372181,-0.09782971090106743,0.13160110050318344,-0.1480673063334394,0.03958716831757747,-0.09298686371046996,-0.12112863780295019,-0.17101589519605206,0.01038825632398499,-0.03912984237616271,0.14300348569540008,-0.00824081453346291,0.07450009472155032,-0.034073026219755394,0.055378138027624396,0.08015886858668071,-0.03586346304678244,-0.1097146566838651,0.07398759862713698,-0.034605978621383995,-0.053800704876745924,-0.08067479018134115,-0.12054167582424664,-0.04093987271229676,0.008218434962277147,0.059699707268543595,0.005843906062178329,0.10543785074635914,0.09588758202791174,-0.1743396094604458,-0.056083731074244504,0.04450986200353791,-0.06805414266813602,0.11881111425542026,0.11312899456944144,-0.1957895561618408
0.13578760860347747,-0.08119124322702559,-0.1732809008274642,0.10343592453422162,-0.13584701611159528,-0.1940544185744145,0.16973468845826184,-0.12984908644173931,-0.05781176675025501,-0.05157704527354519,-0.2274841577379284,0.039522787003398036,-0.09375288252705588,0.06948619445074848,0.08836479848968498,-0.02466963562035966,0.08999108754659574,0.011534157118753368,0.10481673100739558,-0.12530186144405378,-0.019148208329700985,0.052118676320055436,-0.046456726549769685,-0.04529474113229218,-0.192761592288855,0.1217706977487904,-0.12172609905299814,-0.04349309988543996,0.28890054739247534,-0.12034748031411485,-0.19973526071679382,-0.2173812679230044,0.07361345778711903,-0.038174079688767855,0.08976856002052322,0.1273208086922668,0.010184010696793828,0.22249739915260866,0.015349582875016303,0.13220904862183144,-0.024696186358530613,-0.03655351940594097,-0.18868216340122923,-0.020645680214175455,0.05927042261637692,0.14355221933020904,-0.02020062392188661,-0.10676434684390082,0.031398180491393986,0.0010197565481490413,0.09876776319253057,0.14097953053496856,-0.08590334539370864,0.013060109849685992,-0.08831894813498163,0.017572273533639625,0.16895471634670026,-0.0998608865061541,-0.08148998724513085,-0.03772699466444716,0.10153838951591594,0.014487867553281367,-0.034836846761900735,-0.08738113421336186
0.09885645011102986,0.09341033771623543,-0.1922206530132777,0.009449580068437852,0.1750037699943121,0.19722845164799993,0.009039959421433345,0.04941168528814679,0.08206593531721153,-0.16105938883375104,0.1805585833440504,0.04428206192905358,0.09029685638060514,0.003904353388259914,0.12186011069628451,0.10107985624560918,-0.005898347107628868,0.07388064770352842,-0.04637630080954047,-0.0414992415648611,-0.10424094245486158,-0.029697475560242444,-0.01650102771415918,0.003624717491299802,-0.3122805174794623,0.0912840488376701,0.0035254772901968825,0.021445875825444806,0.12459256999679583,-0.14850505154838387,0.02302012836230873,0.04840895849093586,-0.17330036526706794,0.1873760577365013,-0.1374126662587554,-0.10702474306771206,0.0379513814766642,-0.08304209878847987,0.1287354403648913,-0.12091297021387454,-0.0486433591754116,-0.012874261232015214,-0.159491507779116,0.005729865913585155,-0.0076080827019908495,-0.006752340390091718,0.16317171844989797,0.14599475725394714,0.011484898768690565,-0.05538924212546378,-0.13798119866079522,0.11618248917501149,-0.12689494746886196,0.12857369351505252,0.09961367415437428,0.3037095737800015,-0.0647093469879881,0.03910438015364321,0.020756113857247956,0.07745918496270049,-0.05587216818132384,0.04859853171975852,0.054942471962571786,0.011245326433746018
-0.07462244548520226,0.010806561047630864,0.13865946790694017,0.047393574062671334,-0.13727460908700923,0.09409016421792045,-0.2447174720372944,-0.21788956016287436,-0.07687996618199539,-0.04453528893430525,-0.14226709236624,0.0011725873769079934,-0.21640230414902162,0.11926472154125377,0.08248001116060201,-0.045550676076354574,0.20294141290667828,0.13585515952024613,-0.0007604093697837518,-0.07141779291778488,0.03892764161111993,0.0660345680456026,-0.0696069211145216,-0.18717859658549188,-0.04758433170726763,-0.04811836320219291,-0.02253587508373915,-0.0804836556380761,0.09570292996011309,-0.03397580884295686,-0.021946599792684804,0.06305215381636352,-0.177631228203819,-0.16998077711004814,-0.02328972278972244,0.0678540975792205,0.0815051586707805,0.022830530627616613,-0.06738654249820007,-0.15212891287107141,0.05538520793140514,0.07968242850205813,0.034419518392733266,0.21109535635852472,-0.006613941833003358,-0.07492476883816093,0.02720858068470281,-0.018342843971243486,-0.001545434399435213,-0.05295910780663583,-0.025796211722197045,0.0015257620299231813,-0.12056270765777449,-0.24807485573440485,0.07308275509629009,-0.017710611932115785,-0.06800000376443342,0.048335733249138445,0.015334439751739416,0.053302540963234606,-0.1266881934095839,-0.19544911282425487,-0.09894053269703293,-0.0032910902015998106
0.1722651866273254,-0.06951342194046221,-0.0625653690661266,0.10771237588091875,-0.04961206775375105,-0.05432747527012233,-0.07856701667555044,0.12534261081498776,0.03409880867879955,-0.08693774956785763,0.0007180225769436692,0.039792238317203424,-0.13794018754059043,0.026805384549917613,0.03749472350233427,0.04381032174886592,0.14524427740368973,0.061019163986667735,-0.18973336541613062,-0.18388366389739055,-0.0510646357035072,-0.019905479692675046,0.08988314245021066,0.05865547092533242,0.07674833500875061,0.09749448255872853,0.04562350053214824,-0.1547728793369855,-0.16157090035885746,0.05699197493113313,-0.015640322847781073,0.0379933971010245,-0.22024609804650602,-0.09787285423803163,-0.015064051407882882,0.05150429962061506,-0.0952864429844988,-0.08174529186527829,-0.18701235467673893,-0.03981655982507488,0.11097205575184443,-0.028354283448633884,0.0009920169290880405,-0.06157502452858478,0.10797929952350734,-0.08576329780391949,-0.004879692391866714,0.15581851710828623,0.08905344173465807,-0.06967302203520274,0.013057925318132877,0.047892752927617736,0.16504061420973493,-0.03753988778407646,0.08295724028496888,-0.04373197676861361,0.04982034545880288,-0.17760047994643746,-0.196632572067597,-0.012081484179986817,0.10952468689100706,0.03865126429371004,0.03272833145704499,0.029326607996910316
-0.02831265025427331,-0.16034555535136755,0.07584096156787246,0.018451018780194072,-0.03904720337909673,0.06001722429510599,-0.05101738404462565,-0.060875923901217016,0.08998593408199074,-0.1169238390380645,-0.04771408736464944,0.06894446599075775,0.04902190727780924,-0.004653212234352047,0.010391827977833109,0.052440956262295224,-0.06438501906107381,-0.010291691974164565,0.18136610088472505,-0.040097566371356745,-0.012407451768096604,-0.1447164156360129,0.0227352561562053,-0.1169021149848225,-0.09645365418975146,0.1290305936390904,-0.25691713607766953,0.030159279277509644,-0.07247218471496424,-0.02662471992638872,0.025069739463410456,-0.031247389486753242,0.12444363796888878,-0.05608433095891381,-0.04274840993063103,0.0647958485265435,-0.1376724220983728,0.11158585005621234,-0.11397237382296498,0.025606968776659925,-0.004837846174171678,0.017438716863672512,0.02431508747997774,-0.11272302580796484,0.048859404295608574,0.032023238819351554,-0.11763752929432161,0.0883394275497249,0.13582704508882296,-0.1742909889097625,0.17165100669606162,0.029200887902602127,0.11834662764390134,0.002546493743539849,-0.07219554495860911,-0.04264011983515213,-0.09309943695769111,-0.23136897893678038,0.04492050752652184,-0.19008161855562372,0.0003895010206373954,0.09810377521083524,-0.035542063050524014,-0.06858779383862355
0.03500812837196471,-0.05120896222432171,0.12335955519196845,0.008789670484609205,-0.09194898775800286,-0.012488084088608221,-0.06335888593505982,-0.04509314718487151,0.12411186648846613,-0.051977614899767224,0.13798310942148773,0.038379855355069444,0.18367740259301246,-0.0022162118162206987,-0.05705569382965921,-0.09294783238660927,-0.10313548282550565,-0.03305794180387211,0.03277745005266618,-0.20183115393826126,0.12111095323755672,-0.021718089407884743,0.20362766020087322,-0.06565078552139018,0.004613421276254483,-0.02653922682896457,0.03648394913416279,0.00045135864166742884,-0.12972361772681257,0.04855720580843784,-0.2119845176814506,-0.07777277397285595,0.0917036001567895,-0.05475677880511418,-0.1337215086546306,-0.0662034841555902,0.22692773714696793,-0.011814224657295515,-0.20131683079676344,0.07339567985517206,-0.055791336382334446,0.006727025838282838,-0.1056204619921507,0.00020414952192823515,-0.08297222253804735,0.011310855286455031,-0.0017857915298023772,0.020070212091368268,-0.022319428482413025,-0.14554820237073057,0.17290142871746816,-0.17862892329491584,0.048057520510622315,0.019022511707831726,-0.06005667010546576,0.11623379892295974,0.11513232247149828,0.031427815122747435,-0.06775939048711052,0.0826096552213508,0.029464401994292982,-0.06384944418497186,0.14687394844801036,0.09058469747998663
-0.2306735053815445,0.16442550333485217,0.039428183332723486,0.1008141926949701,-0.01738373729525265,-0.004110216875824044,0.023748977592562674,-0.04397240573533173,-0.1278002550699166,-0.10705467052564788,0.039931385814662795,0.1966124844731086,0.06562346631115183,-0.016445683410815065,-0.12869249115365522,0.0680521551571832,-0.09311017549672987,-0.1407279329515768,0.09952333153679961,0.05902368080664985,-0.025143867594149796,-0.07144562172761473,-0.09963378808019481,0.03774521337288031,0.0026567907624721904,0.14292384464393082,-0.07458619654399344,0.09360485190919238,-0.019485018823947486,-0.04667314836687748,0.024806338680964508,-0.013531218006494102,0.14720478431385176,-0.06320249801545823,-0.07385127781516693,0.050319048999223404,0.18523881097764047,0.10339168114375603,0.023918301250575813,0.057974978118357647,0.1668364183254174,-0.08222621650356382,0.09492665432551307,-0.029370804538662462,0.021229428694364935,0.21684306520329444,-0.08039798142448251,-0.10618449281578404,-0.1270958126384749,-0.05230505348161231,0.06566740847494017,0.1617953585792059,0.014663901582270942,0.07250761098627431,0.149038788781463,0.08701623842962596,-0.1477577728506861,0.28192722102591705,-0.0487223346012263,0.06436104925906684,0.0668723964476913,-0.01698986176497867,-0.03414933366903239,-0.09133716454331654
-0.0747910384434161,0.12742736039186833,0.1800227179661585,0.03315846142768146,-0.006217040854103241,-0.023468702577429567,-0.08662422420255471,0.030927936128017586,-0.11322023917172203,-0.13300738517569285,-0.04486906328240093,-0.19179612393411144,0.02493342549731514,-0.16462151140786152,0.07630228661235333,-0.048750505118252734,-0.11670445478439834,-0.13878350828189678,-0.06429576460179297,0.02254293444784498,-0.005223653694129696,-0.1398833518180586,-0.11304240697112944,-0.1523541838346594,0.04540748817407442,0.008781570082465672,0.09395952901425668,-0.021837469034144123,0.273711340277061,-0.21980330551286992,-0.0006140142787075843,0.05780763443791467,0.03787327948616155,0.02153876743575761,0.0511477742273073,-0.019078981480666828,0.2146108617508507,-0.051742441147855825,-0.1442701762976365,0.21893999913040618,0.11718428975822757,0.056607568468161965,-0.09673230779376035,-0.10082038768738716,0.08976067832442103,-0.01051740276016272,-0.15241980201249952,0.03992078284829771,0.14468003184553158,0.09669238087485643,0.05308523007735079,0.02660016574501678,-0.09127253540948155,-0.11509963478182568,0.09277011847580298,0.15636287825246636,0.07909631906248536,0.06840849181919102,0.06285003657350795,-0.018558875709694167,0.1315241803887179,0.13016632969928213,0.036424318123062106,0.08391656989907345
-0.0757841877307527,-0.06783970256071849,-0.1918342997839409,0.09374048678715508,-0.030160524915545207,0.054716487454877595,0.02452859530785174,0.005957264946383253,0.1704087685994362,0.06386132917530725,0.15821602395380918,0.12065631899678127,0.0832858933328529,0.025228638342056714,0.05352831892243938,-0.0779719105486181,0.18705029463075343,-0.17601061342039792,-0.12443828451526112,-0.0908921177119148,-0.04919830019249899,0.004111113675477509,-0.030126918395789865,0.09209143552180543,0.004629259321651829,0.027216214479535636,-0.19823826439494255,-0.0059990957630683475,0.03243256196364049,0.029321683035352528,0.11172580714080915,0.11124663649265215,-0.09383809554239195,-0.06383434936494511,0.11852149309524795,0.08892629769117455,-0.0022810890751287613,0.10973117931892858,0.008862162799999808,-0.06960069805140812,-0.004007283212627076,-0.07972992016765562,-0.03683957759875777,-0.048418011710122104,-0.003670383253291091,-0.04668542189547833,-0.08772805888247709,0.07839760065514743,0.018210283431533875,0.041899062963809214,-0.11262338891545864,0.09518100554120756,-0.10555822884184698,-0.1463906957233239,-0.24647978017741107,-0.06408036361332474,-0.10539497773666764,-0.049336587148839296,0.08133306891283265,0.085684328002968,0.20770837638537093,-0.0818030814397456,0.0005992763607943264,-0.046839071066916586
0.09724410161214433,-0.07903437141992709,-0.0522056604421844,-0.08565789405870755,-0.034041353854344175,-0.008350639897659164,-0.09438771088316979,-0.10464599938214239,-0.0024224175178011943,-0.017082201371376556,0.12227011043431098,-0.09787332958384555,0.03799315882954393,0.057271969725510234,-0.05212254002829186,0.10440047099482452,-0.0369390369182091,0.1032312610802904,-0.14778930003266205,0.03306222146557921,0.12876497624061087,0.07727034680438322,-0.14705470606867174,0.04621842152141928,0.0003860364276050994,0.006638567126167368,0.04355421817542525,0.0677666796319194,-0.04206724427228839,-0.05093750323791546,0.14062878605371434,0.0076936233600328795,0.2178893599543007,-0.14074742361915923,0.059132853741150786,-0.09610982443622951,-0.05325176512966258,-0.06315602405270727,0.041963292398382625,-0.08099287625188745,-0.10009739302001337,-0.2231003961466268,0.2689685769526426,-0.04069221740646855,0.02685093162718226,-0.14191818652590463,-0.0027152214588045277,-0.06117976106099008,0.09068023312697251,-0.07103607126847779,-0.010782190630898558,0.048185022688168794,-0.12047353078453904,0.030931051564705443,-0.029127440347658913,-0.02089623204604521,0.109174144706488,0.015247729342945044,-0.022564514527742816,0.16559816548177006,0.1024961743552304,0.01677222937391797,0.13637974239565184,0.02064427000318088
0.10524829079005599,-0.013912185688273009,0.05393574196723638,0.07938488913549525,0.002440955230895424,0.04215447888298913,0.032686877865059666,-0.04796207996309218,-0.052115098877771174,0.16308730553050813,0.07924501084980201,0.0268939979965536,-0.01905376553294299,0.13007186113310645,0.10945160597705,0.14189536197442085,0.0924676782382905,-0.1723088308816105,0.0843041108805331,0.013574648452283603,-0.06452809165448221,-0.005842907178367612,0.008164975853320043,-0.18318643849238808,0.07853955527245181,0.07498612627966303,-0.09352299321919806,0.011760954611995299,0.08495581102526001,-0.03523239090776024,0.11873611164770535,0.08821081645704609,0.00816782451991673,0.1976301469545363,0.05761299802492392,-0.059776354121224486,0.08923165485440179,-0.012640523270764637,-0.0084701611431523,-0.11325838774551433,-0.14146044661161034,-0.24914366248435213,-0.07019090749743855,-0.017538472141255652,0.1550588013181199,0.1338397802913742,0.1436455160952714,-0.08525413481609617,0.14815852960621984,-0.1376078722740109,-0.13446292507418312,-0.06330305057755212,-0.12295555675903967,0.21326322477739323,-0.0015720339442805188,0.05221180087300442,-0.03503561245569267,-0.010582518457007736,-0.03507009801409363,0.0031589417662344294,-0.03473875981551842,-0.01865116257845832,-0.013228074243388241,0.18765934889685212
0.31465147996095855,0.007528591920012913,0.04866514635211483,-0.1057868464778628,0.22142308704524294,0.16097749234354786,-0.1619238887559159,-0.005452167127629016,0.09075751991797928,-0.22056110422848266,-0.11157387617790267,0.17152634119157362,-0.1865641522351831,0.021893630510687944,0.0036171531432293417,0.2293830542503887,-0.0623484959665803,-0.004057048081180112,-0.14222507466218198,-0.182407794650663,-0.07050884089283702,-0.21519954972368166,-0.12123813199472958,-0.01769341941290507,0.058978275836887174,-0.181466164668655,0.08748343431805437,-0.12269861161058047,0.02654518332612209,-0.04799965090766271,-0.13479165012955732,0.07921607024461566,-0.056276073379640815,-0.0831574982110547,-0.250319435330157,-0.027480444462064837,0.13248104499424115,0.0004827782071519876,-0.0011537955352031737,0.007670455122184391,0.05926184302740739,-0.05616460306917255,-0.21824644059215764,-0.03070243078841353,0.09538129586901734,-0.13320761337451634,-0.08942556856306288,0.14517269373336472,-0.05544994134320193,-0.05784476421497073,-0.002630073587495042,0.0014941199743694522,-0.11219129184904382,-0.17751833462001684,-0.03168193223024207,-0.024578553178410067,-0.051739669443329785,-0.012961970939693302,-0.0077608449851468714,0.26052545895565027,0.09596709531592737,0.029857113018880405,0.08303981797757937,-0.10978430836684888
0.08565397478928999,0.047872099202152185,0.08966715135262658,0.21594449076208644,-0.16844825513080447,-0.11261850346306797,0.1169111372517313,0.2366128379539958,-0.10471212075885837,-0.11788011442523116,0.10001606161055734,-0.03409638409246739,-0.12182892434862314,-0.016295960142956638,-0.028929542344099852,-0.1991650685949392,0.06367702359072806,-0.1693614034706523,-0.19498656047504712,0.08777926066657217,-0.118980873805215,0.10307197435574528,-0.1138591682897418,-0.05425717576336117,0.13537735590306155,-0.08344990491229437,-0.04116097219535053,0.11182239926507381,0.1798245825859927,0.10182665514017286,0.05364557849376822,-0.06854089738606509,-0.09317893183350577,-0.011924054976174122,0.17149543507602547,0.1912886122942775,0.08265250376318833,0.06992481640188213,-0.0982532770788217,0.008299439812886588,-0.125933941010107,-0.17415946032157886,0.10310864199121249,0.04857961880731399,-0.08233923718833748,-0.17899240346713532,0.019156922593265457,0.021725519891141926,0.027453092780054523,0.1359398476083461,0.013398445080065546,-0.039081819519265225,-0.12116486669327141,-0.15408489540647838,-0.08694074569517143,-0.16589666260288638,-0.09678134617873067,0.023187865891281013,-0.12814260085526236,0.001560559579969859,-0.11724526798598518,0.07651818482893723,0.06402066888234177,0.007823981228038557
0.0026969704571281586,0.020003206124679016,-0.024415687818865613,-0.01858022230622559,-0.015721311421838465,0.06284895310459336,-0.13856122383611907,0.0353561831644,0.04991525581551807,-0.01142097416338833,0.08565071481585507,-0.09587699549709428,-0.05442412851635969,-0.22333132800699815,0.07974420753330298,-0.14186270821560293,0.06998775639191206,-0.07126070572846536,-0.01033038259438695,-0.06687134349908543,-0.10024182646549747,-0.09136296308684268,-0.0032666289409044357,-0.19661222138922396,0.025760635253154945,-0.05525975789669342,0.12872484016086186,0.01934874703612996,0.1036036641715416,-0.07650277447728257,0.060967913987190495,0.003296278554132315,-0.06842510443419712,-0.05801887604063697,0.05272212900529179,-0.18348840216382536,-0.09547780717950388,0.1067875715471181,-0.12449356049868704,0.0015142636555161156,-0.015457878285594496,0.028371485496272265,-0.14477490254256392,-0.06044723197942005,0.07601516006215524,0.13899087860194212,-0.03969746797396032,-0.11377152242646547,-0.09275620353388019,0.043084369521899715,-0.017272837219866024,-0.19040777393847608,-0.07309081867077213,0.04527915895686193,0.009976478886853372,-0.019315201094146518,-0.08327989960351348,0.022572319978386268,-0.09492850648025232,0.09077967010546506,0.11570702340386392,-0.07931922905594418,-0.023267845544532404,-0.03871897969047477
-0.0808974252714147,0.06616595966213472,0.06272545278403337,0.003947169927096891,-0.15688795029240946,0.031084366968426348,0.04740783070572084,0.12233470817773867,0.10900801584508504,-0.08015317741973382,-0.026762772600622715,0.022392983974394404,0.022546473833084172,0.04748050477405202,0.04177760784288042,-0.08075222819710833,-0.08375431114271246,-0.07910902034732838,-0.10221596446560355,0.18909789577716263,-0.13100312985488716,-0.08535758247974372,0.11288916164117375,-0.009600168546274249,-0.09478095415222447,-0.031018743749212232,0.05973733069427511,0.05098565895981042,0.18076484167870122,0.0707923349906726,0.06915603678761292,0.028248963619552942,-0.18988640267924742,0.057748697333108,-0.06495007115193806,-0.0035356720547053363,-0.134297621790984,0.12505350409766605,-0.02121682239800687,-0.015743372097415474,0.07228819029879761,-0.08710256937687222,-0.04084260573698415,-0.12016482567600716,0.07025335244275979,-0.051388160403482874,-0.04704900766302324,0.06241882473661508,-0.0008289882911121989,-0.029409806257673133,-0.02955203311264151,-0.002911501748255651,0.04027368909786607,0.03231320241721006,-0.014168144302543071,-0.038094128236528225,0.0625640330792224,-0.13474164264943864,0.03222801657285567,-0.18315846783324793,-0.03454944239963748,-0.07720252375491646,0.0871468444805849,0.0059274882423667585
0.052445590204167516,0.02424630216921252,-0.0631482265813546,0.020917411011424573,-0.04932492758349411,-0.07676604360353513,0.06426524677784749,-0.021472163009378986,0.13135624546784705,-0.06824522335515491,-0.10196213949072855,-0.19531432078312624,-0.03079155979613188,0.04699927837433657,0.053703383739877625,-0.10823009377938748,-0.018250997393355013,0.054312240549305425,-0.09101402896619103,-0.20069780934034862,0.1366361024569911,-0.014678380514359999,-0.02515518424330761,0.019589342910589263,0.0338336682968538,-0.022314704646905336,-0.0385816450257323,0.038413518045415485,-0.042284455209593605,0.0940977975587548,0.13846399017765884,-0.13907996311096857,0.19287280011524172,0.01763587925560919,0.18902143458781295,-0.040346784033663936,-0.0012002659525930674,-0.12037848056576357,0.13505701541361728,-0.16544149421014775,-0.1565489893017995,-0.22630084323873445,0.1238997841082405,-0.05184924252510292,0.005349900815532774,-0.06800411319511862,0.0618022717848658,0.02089114372909719,-0.17410798120576323,-0.02025071688720442,0.09730482452571049,-0.028599610428418444,-0.1897927793332805,-0.023352438024512534,-0.09130432370307759,-0.05154401286597761,-0.013933252887926845,-0.09987702853077904,0.15143238816747415,0.007838046251318478,0.12962506975415586,0.028520287596212793,-0.0045691624496477,-0.1674980155413018
-0.17246106920565898,-0.0913130850897975,-0.13221357175440326,-0.15424800999785648,-0.01983742659018779,-0.041089191614533505,-0.050692875681952645,0.17947506853539089,-0.042341106970541456,-0.010932019589224311,-0.043049549838424996,0.07967610860933616,0.082481458917738,-0.04261607105943027,0.09371873737547329,-0.04576264922987705,0.08278616327377852,-0.07552806324442596,0.034677499090076815,0.04913595707826893,-0.01924405741777116,-0.005125541372306099,0.14132178054255373,-0.24521218621470955,0.08288845463923511,0.06706165480070468,-0.19942353415642877,0.10418253816010448,-0.05020174746962405,-0.0955426345678075,0.0025052532025224795,-0.08275096724209835,-0.1516435644175398,0.053331662653909685,0.09256763758306258,0.024019692426276218,0.01906095837894317,-0.09245691109634363,0.125559662694788,-0.0038255791793125786,-0.008765480098426067,0.07530342361233011,0.10357531155135452,-0.02381070087525944,-0.009942949877159523,-0.005009677160738798,-0.08538218395969459,-0.020942512924027296,0.16590318123311615,0.043609199042688604,-0.25979150009832475,0.06097642768536302,0.15965616006231356,0.049442657485787016,-0.025195312654670163,-0.12100683295276465,0.01352924166715456,-0.10402411971342902,0.01313903845083456,-0.1354408434555887,-0.17108827729160392,0.01237529421580585,0.12286285514328582,-0.061434316248916016
-0.07472445570327305,-0.11900575809642105,-0.07522016338368906,-0.03951136245297129,-0.11859388909690194,0.09319446166002883,-0.10665444426489651,-0.07508472398369243,0.0595945710591833,-0.03512381100355055,0.049482206144584165,-0.02696929092019028,0.21775135414096064,-0.07800838491188605,-0.08155863721333007,0.026636822511737858,-0.04708524549230897,-0.09891546181616845,0.1501384570639888,0.016266748066144487,-0.046112970693225126,0.12823174880252172,-0.003550356054255308,-0.03658817456950914,0.07190986623641596,0.17511122942865323,0.01901547282229753,0.059975156850584965,0.09126681170826605,-0.028557952218039,-0.11139219995297192,-0.08160211700071397,-0.07394986759832377,-0.166703495950745,0.058921076877127866,0.07744636235035512,0.007911752802002917,0.022386904997029396,-0.10568952732591629,-0.1143502918441825,0.1996453492069693,0.016228707759494965,-0.14582020212205912,0.1329649866741112,-0.04959911742614291,0.01259857672286573,0.16530255349565018,-0.060320702587284725,-0.16832919573177813,-0.017793124125312698,0.059147263806334,0.056984811045810636,0.05286218836511447,-0.01314971307693347,0.11540628970149432,0.07296453199287335,0.0019376870511770693,0.05842235861675257,0.014112951895044393,-0.041173452677267464,0.06811194436533326,0.04335285434035948,0.05969577028120132,0.20755555169224071
0.06412673545806094,-0.037089554275448515,0.0814233878628436,0.03595595106812205,-0.007975572782973388,0.07227962073823589,0.07701843994652963,-0.10639408625836569,0.174235959574845,-0.037511905062740825,0.04036935290963622,-0.16784230636270292,0.11528818361940081,0.037165840305514335,-0.08805663008826636,-0.02921684282891362,0.11309782107005158,-0.013743606179124521,-0.0691725865823851,0.043268210771850606,-0.13649111695228608,0.022725531002203786,0.1144019510904688,-0.22150062465561948,0.025471803305556085,0.0231159953173639,0.03372396964802103,0.050299142099514804,0.11661703022786062,-0.21928970538402537,0.14135019909494348,0.13286468009430089,0.07392108661020634,-0.1833076854681946,-0.08321516351290753,-0.08384772179035209,-0.08981383542829857,0.10726471896497286,-0.06738610919277971,-0.014796678799896008,0.07435463842395788,-0.04145570938090014,0.0023976194372104637,0.20830323692314456,-0.11465703948029637,-0.06094731802801458,-0.11348435347342832,0.13422708288836147,0.02371907626275591,-0.030279513254798808,0.021963670186648312,-0.13829383313472082,0.014096327185850618,-0.05338141698674481,0.08268199653648062,0.17448832160375763,0.07768618656978545,0.05206835629610797,0.14575763488299667,0.03319178495828702,-0.18344576959056613,0.023754540540348767,0.08177979908685074,0.08940073125870679
0.08701567756952738,-0.10926535043921747,-0.0441876599331776,-0.11973615501952094,0.16129944256595852,0.10501457727283399,-0.16100690106904414,0.04685752398379977,-0.09863502582938322,0.1357615226126092,-0.1479820229325276,-0.10350639793444293,0.027670081613812826,-0.0827220279173181,-0.12062426164239665,-0.14576752428001,-0.03485240034787915,0.1563094715351729,0.2384240432595553,0.0572091802970829,0.1490468010926706,-0.046662175447962896,0.022419310819499296,0.034997813104082086,-0.09670692452638874,-0.224782691821828,-0.08128922382864706,0.0006882769741869232,-0.015355005990198062,0.2103069914405558,0.1454813377420372,-0.07612238659028059,0.011731850062955485,0.024725370299468856,0.06050138371085596,-0.05226236326795783,-0.18905284040321493,0.05031780674921188,-0.0008894577363914837,0.15066711707921887,-0.05190616177535276,-0.053937594358348384,-0.07614447967490175,-0.22013776702811297,-0.09718811732570923,0.029664626138564007,0.13440387035861454,0.015416960116383242,-0.010713420190484838,0.06487228932931809,-0.006177604351940889,-0.17896904666138516,0.17127701418992025,0.07053252739295607,0.0692593135246317,0.004252670586089021,-0.11223846173970237,0.073576622963986,-0.04255937734421039,-0.04074501866847536,0.004386519726851899,-0.057300505622128545,0.07083291718090692,0.03513080617902036
-0.16545610657170642,-0.23610558775409657,-0.04055877332848626,-0.08928890818821314,0.0143023990524414,0.11408881345941049,-0.04705490656432528,-0.06908491636872431,-0.03430015732147146,0.007420867511451431,-0.11309970924750841,0.09388511295584898,0.0875514223854102,0.0010593792164092875,0.09018936425765738,-0.03415273938177603,0.051918801084180434,-0.008927854413562855,0.0434113187686551,0.03468513175361675,-0.15775456055867032,0.1642505897238248,0.01687898734322689,0.09128026451166985,0.007972770487388006,0.0041217472003872895,-0.052690152016235725,0.023521269860756262,-0.012318152967291576,0.07390043301844547,0.10653877206809095,0.20441862760850116,0.10897678327933735,-0.029816687693748473,0.0035322451687718245,-0.028489850189623352,-0.1258850847638882,0.10931133967799343,0.061718099007100215,0.17458826510957326,0.020516034132245942,-0.09116116504931024,-0.18001493308587468,0.047202109700196296,0.20234935465414502,-0.10438170628771007,-0.02506939918022616,0.0014504720121737156,-0.06506659047415195,-0.1156691060760208,-0.044449616839983254,0.0820001182413077,-0.02635588193797629,-0.036799096149073354,-0.07083393949569601,0.0064051532446269726,-0.16913483938703042,-0.05032328843219506,0.10112996306782257,-0.022854632564067084,-0.1308775746678663,0.15123221552577348,0.0237850436068798,0.004294019266313211
-0.012763858314334625,0.14049286320353974,0.11437758372010956,0.006502366914364121,0.12086362732895664,0.07936208280633122,-0.14935722129509182,0.03876708334847724,-0.0831804817933365,-0.15549479779041264,0.05922326619362971,-0.033204817737306346,-0.03943214842967918,-0.05753220614475135,0.04716168718452615,0.13390421584911175,0.01715677429120134,-0.04272630488737925,0.21737630557638765,-0.08964466546226796,0.03474303187855242,0.08949715509394149,-0.07636692528577882,-0.31062561854354176,0.008817841974169365,0.04986398285981389,0.12264254867524227,-0.03301197563404292,-0.13098982909071286,-0.01776179368750216,-0.06355317558691403,0.06824073722656178,0.20873238476237,0.0052143363013188275,0.03371417532516848,-0.06192244420355363,0.016327301692674434,0.028012400793974525,0.03315298753715536,0.08829893435502863,-0.00023521319928453377,0.01824319491596802,-0.18042629821152212,-0.0023891244920178963,0.036924979608803886,-0.03564594634511163,0.03398516409978961,0.0010084540657115278,-0.1840150101765159,-0.03764971414173014,0.06516792985533812,0.07214969328824543,0.09143869214366669,-0.18241647727612184,0.07202765474779307,-0.04918198045022798,-0.08529383862231767,-0.1026128084207981,0.14960448594792133,-0.10550849045560058,-0.08140065290816517,-0.040511035217526525,0.07828033564257353,0.020375126827578582
-0.026796433788399483,-0.17237721739552217,-0.03776737092759601,-0.08974880190830027,0.18122403264296347,0.008864616874921748,-0.02494999929087787,0.019927567060648285,-0.11655153199231272,-0.07477910843009285,-0.020973253704622965,-0.039871410103423544,-0.0015406655955176843,-0.013228190479087028,-0.07830412948097215,-0.08079592841802413,-0.004860308269949204,-0.12703557674417484,-0.025122307451236336,0.09011291398547909,0.009000339042834907,0.15230561810039436,0.07591867480700072,0.012974538021339228,0.1724290533253957,-0.11233524106486444,0.11284620541698026,-0.20681528274919467,0.19012874126512286,-0.08896707407063899,0.2332613708955211,-0.040180164608390835,0.06841577733448746,0.11575803981946407,-0.18071422895565725,0.060024299278338515,0.0021890222698076906,-0.04782807584509166,-0.17488965143245294,0.1180460318502727,0.10646150741858423,0.11955358438880699,-0.22918407504927513,0.16206874791481496,0.19804268999795702,-0.11487285171953941,-0.026556904382079638,-0.11938839881772985,-0.07258773068572506,0.01677249803022097,0.04894956943899945,-0.019835017587335912,-0.038642686857777934,0.07087332789298849,0.018320861681727266,0.06923148613469599,-0.016713846418894656,-0.1632418545758112,-0.15566319073101237,-0.12359964211311024,0.20481793066479803,0.11515525215809055,0.07921790780272081,0.02642686376567384
0.1326771900141199,0.33165748158125724,0.049640242736495394,0.11638593162296854,0.1295489598778827,-0.02892013932785339,0.1371159271327752,-0.06455020888090274,-0.038271856876713604,-0.029247123954095185,0.20361665883036523,0.16515970294668772,0.03794678424885675,-0.09955494957237841,-0.20376721309597245,0.21473576663798696,0.09193871842806768,-0.08769753596976204,0.13640698842820687,0.03551025400743187,0.10173053562366599,-0.0430971966942591,0.027437049796587273,-0.12976918153306036,-0.05157918095902894,0.07486698222258233,0.062463763320985216,-0.09161051335614134,0.06894295356809986,0.003755095838959684,-0.06900662789371872,0.026875734694553396,0.08824623082783055,0.14295579370698747,0.04668411852865489,0.16041997587663842,-0.08250516007405266,-0.09181339475664188,-0.020187434477525974,-0.17014178530438898,0.05165431793008699,0.051178327554495986,0.009824172469652552,0.09573346845748185,0.0585120498011273,-0.062046285904214404,-0.05470378062614104,0.07114606778173725,-0.016428787430859067,0.06381432489316603,-0.1261987514140764,0.0826378325810929,0.14231998641321997,0.11289710253845736,0.20437431320352284,-0.12623006118994837,-0.021079847114698257,-0.03393629508260356,-0.2131245235502126,0.04036662763231583,0.01673968620255593,-0.01222500518298861,0.0050900282704414365,0.0990798175135772
0.00782111945468567,-0.022484331407103316,-0.1622799210997795,-0.07880418610912347,-0.04677458400980393,0.063979082982935,0.07259626905230347,0.1310805021396023,0.13679710114839183,-0.11713180014086036,0.09337950197694705,0.18717025456133596,0.17482149197257155,-0.05241317907619243,0.2724649823718369,-0.007281406594663026,0.0502087769605187,0.05413136883537713,0.016620403236841594,0.08659965067080608,-0.141859262567688,-0.19991563797461664,-0.10447038381393788,0.0813245291156799,0.002125039196478842,0.14690716363987885,0.07919530084954807,-0.07909477353258892,0.1578728020871227,-0.027824352351244058,-0.015292477782391201,0.06746472457677444,-0.04351673829690456,-0.08605407634756197,0.19401133160810163,0.10658948143272054,-0.09718248703404826,0.08635488972170297,-0.1284731046004016,-0.06321222946624927,0.3378624399334584,0.010258311790586899,0.15671178098085217,-0.17748824230017485,-0.03223851019510856,0.06387536080889443,-0.03976556275412076,-0.09501714466350254,-0.03717398286121747,-0.11843753567706648,-0.09765317747494749,0.15207468646864697,-0.10565071250627832,-0.09986426029098741,0.08459768272331694,-0.04984714597958033,0.008773837091451622,-0.009471343427242504,-0.20491008295383306,-0.06190677069969774,-0.009401529440706248,0.06987240068074584,-0.14331725232606082,0.05855042145657727
0.19881771258956024,0.034896327622438106,-0.12196492608278078,0.04576208882372787,0.040787834622472756,0.1260744056092554,0.0708155870333329,-0.14534475268941177,-0.11759288225570588,-0.16291343841324835,-0.030674354047086867,-0.01299590356977762,-0.12047603219546617,-0.0695702235672166,0.07508173855099626,0.03707535814285367,-0.022825453361300888,-0.031066006626219674,-0.0024349598953382428,-0.04544468905826648,0.18405201475223168,-0.046962654139565393,0.22400619495067137,-0.0045340808086055395,-0.02405743217691465,-0.2005993459683859,0.04809520742564185,-0.10241474794865256,-0.10356497703868912,-0.19741506194659364,-0.07684982261650063,-0.06402811729189144,-0.0979993167623325,-0.01738438322699669,0.09720245651801462,0.18247004165899972,-0.08947561854807888,-0.05654389442637997,-0.09403074464038291,0.013416264824126282,-0.13076562756566024,-0.0463598858015383,0.0169938521622062,-0.13532866023116383,0.04160882097236442,-0.001291695893979375,0.041569548403335314,-0.03379996033991863,0.13342791792431952,0.03863468544932039,-0.03371107851329374,0.1136540820260317,-0.11427484659875382,0.08190276850122,0.25442720908145045,0.11720356258487225,0.001456716575657893,0.0747737696304761,0.1504886967259657,-0.2175025682211933,-0.08434841205354655,0.017113670228914576,-0.0013189879922452402,0.01622572331816811
-0.03377798394283967,0.04694205322100385,0.09478303132946897,-0.03141863918451529,-0.041868125184659155,-0.11320351265586573,0.032346892413193246,0.06197934017314012,0.2004510262575181,-0.004027065241163996,-0.04844858672813231,-0.07571049131351264,-0.010238580065983976,0.03388045186441322,0.049756610936052714,-0.06698712997630518,0.012300717431749021,-0.07758691302603049,-0.053794178271599095,-0.05628294065108774,-0.06649195301086795,-0.0945146704922944,0.062209668083241444,0.0005641295316636921,0.10111966225654606,-0.11775235966084639,0.018851487088603004,-0.014470400959097513,0.0919991956863696,-0.015418909436214738,-0.054639006367610626,-0.013419194631803744,0.10155717786681764,0.04795588787075944,0.14959422795665164,-0.06754554003836234,-0.1078334658488138,-0.031614048519336635,0.021883001570204848,0.12000270329604618,0.18538805050374463,-0.05672115974169391,0.0679514147844781,0.006030227433859432,-0.0675606071720867,-0.04705022159637284,-0.00039042309344651754,-0.011323608920523103,0.028343613476653262,-0.05218937415300612,-0.07023949139038134,0.2532956497880072,0.023496506744953342,0.049677872795184624,-0.1860505084023447,0.011751760542914545,-0.02017619246332129,0.0901504664783998,0.0891981971740003,-0.024849028901693757,-0.03933935056740556,0.04381076687046488,-0.14059704547623647,-0.05415639333262834
0.058649365209119335,-0.17316833979477728,-0.12869651365308607,0.17893940395368876,0.03113976654267536,-0.08137091154011991,0.18098049711077757,0.005886721100130764,-0.0682904028030739,0.030577922726884567,0.06286316498469278,-0.1582148058691804,0.09889961310456254,-0.04008111994941222,0.04841400060887784,0.1274779315793166,-0.14299963087117404,-0.10338157827875222,-0.16230063097838926,0.06202619310540911,0.030646222871614844,-0.10130217095177084,-0.1633142814322741,-0.1489713230931409,-0.10516750274878768,0.007523173072047419,-0.10827397911907309,-0.046999563280294636,0.03287654099973549,0.024397092695421986,0.33262022067113306,-0.19792770779300192,-0.04282314069960818,-0.09909624555139404,-0.029487927266166437,-0.09748991601953766,0.16370939527676948,0.03418471943284697,0.05138067283638906,0.061751654396450834,-0.037709246816838876,-0.1120367806050262,0.09154187377919039,-0.06751017810588593,-0.09234404947485304,0.007135431682031135,0.06798108892028457,0.03837428523598114,-0.10917630204068605,0.006163626895915087,-0.014482282300004177,0.027656198681852984,-0.06784837670202133,-0.12832996483716302,-0.03120538450665444,0.044612788201743275,-0.038721671477180475,-0.07681603608589486,-0.3000517265226011,-0.14798082347912653,-0.025813323651307986,-0.11419466044592426,0.04537298492224847,-0.09939081092428416
-0.07207073500244798,0.015861728114178852,-0.028182541510321037,0.04336577070323771,-0.04445536123727875,0.02707238938981086,-0.3966201586547067,-0.06760234390774043,-0.06778059195643364,0.10416643377509552,0.00015961380947834069,0.15397029574025084,-0.11652720308695451,-0.028809628158814816,0.09610826451516696,-0.017272447554321658,0.302481239512396,-0.03406214322022159,-0.01746407823921604,-0.12638308895339742,0.10031549409228083,-0.09564587110394442,0.020637782866345322,0.005727050324290187,-0.03768546132109229,-0.049702033493613816,-0.002389282846093057,0.04671549711811762,0.14382243176508555,0.010411241794664076,0.03348004038352098,-0.09751228493438352,-0.11177397029248418,0.19824763482068214,-0.0993119746042152,0.055419582313145324,-0.10222700553319626,0.1330831968168502,0.043957227533404655,0.14524042772139384,0.08493930494484597,0.028012693426114555,-0.07909404702980043,-0.07138037161043079,-0.10909038823063291,-0.05984604703143184,0.017995536114717377,0.09720224925038119,0.07066879030083059,0.03856702509640553,0.07656202617401733,-0.0926855885122886,0.07782107242310872,-0.02485965055652703,0.08188602046935384,-0.03980540026887008,0.24493689781010555,-0.01123958105983469,-0.09522680745177127,0.05364617876276876,0.07334537686944247,-0.14764636908877474,0.06338278337986296,-0.12020613122965303
-0.07366001250672839,0.10010783879101078,0.030866618726449586,0.05527536113481445,-0.041313127188257054,-0.24694596615045944,-0.19975042640635915,-0.021061208871014238,-0.08891568087588135,-0.1850324823156556,0.016405994006552863,-0.06776786299724452,0.05830215338008698,0.023326375696723183,0.12890742352199266,-0.010961159926329803,0.24436657241056922,0.02526608395442992,0.08627480718289285,-0.05836569386361097,-0.07789931310924265,-0.040940785608947365,-0.061310393381772924,0.08430868161865336,0.1012487213878154,0.07145656042659049,0.17708271332857933,-0.0027607949263606987,0.0018571832992615217,0.059080422811126854,-0.053318592589393234,0.031454583812860516,0.17002305788836122,-0.019933902403455907,0.0490127558721703,-0.07328793974740674,0.04767283592279872,-0.0037209663391366814,0.04512725794163365,0.17338674775972585,-0.2106539223070505,0.11967088722010433,-0.08976418544136619,-0.14392801213765238,0.013459049151487488,0.057301754989148426,0.1434115686637734,0.14723724630173934,-0.06585792671874478,0.06480846059697716,0.08166774413194162,0.039200624167684744,-0.3543788203415391,0.052781994053022974,-0.12369040047709234,-0.22937025721727902,0.03986232999638563,-0.11550983767293102,0.02405340424979162,-0.19308834182146406,0.001427701125513788,0.06246103474336019,0.08489325840987606,-0.05428343233384403
-0.07567078479161954,0.13861996963293607,0.05211798267502437,0.0329936326662944,0.024719184727609464,0.014794862101386594,-0.14168771691123558,0.0910838866556082,-0.057657985172365894,0.018575674506437177,0.15259794989569087,0.08658333145067876,-0.12894846797536622,0.012490146038952437,0.06204268037469212,-0.1863527801159226,0.06985750380935062,0.08061785780566433,-0.1443395060930471,0.002303891773078081,0.09945763789036291,-0.013502204735183036,-0.004463109023587006,0.09164374169442757,-0.1089166777950213,-0.055906716987519534,0.09025673132712565,0.04069020596555526,-0.08090279114340466,0.08781315496691,0.08123262333782544,-0.019806375366513352,-0.006394854681389695,0.13413146540959392,0.018883333954393,-0.10672870160193755,-0.11754091351115524,-0.07504661179934692,0.01322703097557334,-0.05835863679018484,-0.16272580958898689,0.11197404646483954,0.05307722005333946,-0.1255560028944714,0.11972278864631712,-0.22681636854095788,0.11695033902205161,0.003469636418496622,-0.09506326254607915,-0.00233798945528937,-0.09272668326891097,0.0021389218200398223,-0.14410765307271353,0.13101103207992884,0.08340115836454903,-0.04203268914640537,0.028183260865835946,-0.028893748391032415,-0.12212908741291371,-0.004542123262252265,-0.005913226503358665,-0.051000495424942074,0.11089252650058024,-0.14388181662252272
0.14702253032572718,-0.1368091450738835,0.06694852174463697,0.08405637320462583,-0.0675288329990424,0.05319286238907424,0.016995308772676018,-0.05135583555402972,0.14800711046790166,-0.12130824490597916,-0.023373132544663673,0.056274700616113615,-0.08758508509521286,-0.053528166370140275,0.022453946945035677,-0.21707888541019404,-0.1768556632709837,-0.043205561596013235,-0.004467612618356641,-0.2228122114266017,-0.20348730754602432,0.029199727896827177,0.053387876412088524,-0.03266693165746579,0.03272641708382137,-0.017551960815382,0.08545465192760986,-0.029869244607605584,-0.0770463386323737,0.05006803749226866,-0.14458502684556637,-0.01584845665585444,0.07998385353786577,-0.09269077876450427,0.18596678686411006,0.039723554958596675,-0.1017387935102193,-0.017177660495003726,0.014684865939600097,-0.0917536646196527,-0.1046987024818526,-0.06939159863960717,0.057006243374489,0.12011352070413045,-0.07417078597005193,-0.07903603713088943,0.12163471652323735,-0.06404411256294279,-0.03426533896319837,0.06217339383895026,0.056317086913265785,-0.07919200633183233,-0.1763950643302954,-0.025239278992629555,-0.027261059097101855,0.043472501028699456,-0.11723039064789065,-0.019943737024295076,0.0020058632983984493,0.02607106133805745,0.04687408385408254,0.0016233044251552963,0.0030505069669472377,0.06035042716735796
-0.057038174511029084,0.03861851341985231,-0.12663523542301564,-0.1457158163275036,-0.14517723707662475,-0.07015317444632943,0.004633588226083311,-0.13306103686531243,-0.04746394438433563,0.04556625487422928,0.16248856787284693,-0.08647723158801209,-0.12087097570081405,0.09270433571284671,-0.06331292367780177,0.05496254922718694,0.075781087765928,0.010233605505254775,-0.10951661662595538,-0.10277228825361487,0.11121103727196652,0.11796017410944211,0.007697576545926831,-0.11602100718374941,0.12457370530228146,0.05067230383106182,0.0016489704864122536,0.07149189147690163,-0.109277782945837,0.19248162646718736,-0.13395836951691975,0.03560268488103913,-0.10268819680368146,-0.0026924555143450434,-0.015479069420957756,0.11034380444120409,-0.14343204275801855,-0.06174546877507336,-0.007924034726553944,0.07335522642008717,0.08078942722114829,-0.043711418909781447,-0.03168088183958135,0.11708774980564529,-0.03500810236018393,0.15244926689165733,0.005384394045764624,-0.0645094256632923,0.11345518372825925,0.07775567097028258,-0.12168336563212252,-0.1007031773278998,-0.13377568004303372,-0.08420821080769725,-0.22962171591210212,-0.0015588416720821504,0.06878691014027814,0.0549490160295579,0.15799468818606255,-0.0892474310781172,0.013028887528141148,0.08637518323751242,-0.05653427089241127,0.0004588656272783811
-0.04804627750775194,0.10068542335526738,-0.039167509247752176,0.05445313195634513,0.01638302228865308,0.025550363815438654,-0.04745649606894268,-0.13216147166852008,-0.0522920849698538,-0.02936270083506593,-0.19961352403937263,-0.07606026868316473,0.009368717381345868,0.18159308878397457,0.005043234851801609,0.1512444997521893,0.10593851794475476,-0.21082780892529757,0.04504714983201685,0.042744993737982545,-0.257667415567739,-0.05742125884395303,0.1325570919104209,0.2927929084903059,-0.06981968741923811,0.04584195374169253,0.05480476512319328,-0.07391334694216004,-0.03690217210052334,0.08537464673028579,0.14407405843100782,0.13881980277242484,0.017926027794090315,0.07847121015842422,0.015079041560693479,-0.016730366172358513,-0.0617622676918448,-0.04664380736934064,-0.06075783795818251,-0.08828565157395157,0.0017847843606845827,0.020300404279048306,-0.07381830072526031,-0.057657431439607346,-0.08097236759112861,0.15361347180631776,-0.121913573480941,-0.04162702999174685,-0.08518926344113555,-0.09573673431719218,0.19091058527976765,-0.06886445144520666,0.10079402262875947,-0.17754236486703415,-0.05793337764055892,0.13277591652595433,0.15615810988830764,0.04733715037602533,0.17331154898348397,0.06871612721397523,0.1218060641823827,-0.01091064327722795,-0.06402791645449167,0.1659731228018545
0.045712484793360084,-0.03837288772959829,-0.18046004763678347,0.11300627102453738,0.1493124182851894,0.1376806950435788,-0.018197784425591813,-0.13720003981320714,-0.01926065791391842,0.0071506261000572925,0.17055710139588356,-0.020163631141322132,-0.0156998748528072,-0.002272990622007754,0.054127768429028035,-0.03847592408283851,0.007897791724792718,-0.16216222909369815,-0.10931776470899493,-0.08314786104815354,0.028445322809167867,-0.06771242036002847,-0.09797627060520399,0.010675167130163206,-0.02730360786637931,-0.1635277339725349,-0.08170176672862269,-0.2543416996482379,0.08256837023143787,-0.1724473660522125,0.09698194946166178,-0.019304274310977934,-0.02930148620750407,-0.05186098692754232,0.008352385394738097,0.042386375302613216,0.010223641351478893,-0.07794376853867563,0.07027932964139756,0.11352678097016189,-0.05516279095196927,0.1614499076746081,0.06170116198782331,0.03275490623077432,-0.18494506583788783,0.11446823238407285,0.07927117857271126,0.03375160304132652,0.0272677507796336,0.07093951890953637,0.02023488153939822,0.06997698891196834,-0.01728118852471491,0.23448402906049456,0.1508935486003781,-0.08054539814306283,-0.06912513959158771,-0.054557009726960565,0.18866647300012362,0.06567332387467777,-0.07065313335087009,0.15368137814186048,0.20577124464511032,0.10075813173060405
-0.04317951749782189,-0.01671105298426003,-0.06509700814785034,-0.13397136436381415,-0.07190088591659963,0.13185302104454627,-0.0611285079604791,0.11978142338147918,-0.014153876684437395,-0.07999845782292143,-0.11217220295391823,-0.012724403079856736,-0.01902566550663372,0.028921905939060428,-0.060232820086079164,-0.016349720952212255,0.0784554386345049,0.1061144275187951,-0.14562935922061004,0.11294194070805906,-0.14486544117517128,-0.031216759850887094,0.05228092745793698,-0.01693385177995023,0.07223936726146678,-0.0775586339079885,-0.05494570821725119,0.06263665953585137,0.0057158697421315855,0.2058768811566128,0.21353142947143422,-0.036948179634013284,-0.08049195592723013,0.06552962606849937,-0.11115618915312556,0.10044780540627885,-0.023504959395580564,0.10823103152059031,-0.16072578392892017,0.15434063648348603,0.07387838385305315,-0.014168584171018109,-0.08351799759139988,-0.03515930063053654,-0.08483233569244031,0.12389707266404137,-0.07987008155000382,-0.1996092625111876,-0.08635646789891964,0.10619535882541864,-0.08414150464383315,0.1363391455290416,0.10571310198620205,0.025089557468673016,-0.09225143222730363,0.12962749531164094,-0.11450901524925615,0.028966004263618807,-0.05898564316722017,0.11006054851656565,0.08692290098483037,-0.05555661867062241,-0.019431753001932905,0.037711932766793466
0.21587232615114926,0.23029402931857512,0.1811566453491813,0.10589165517510071,-0.08658021557633301,0.1325032456594406,-0.0765849475664927,0.13484304843403147,-0.0924448994027795,-0.16774394104625767,0.04739561051759505,0.005712183009172924,-0.09533663080184858,-0.005807611088723453,0.008781342541307293,0.12203882626455675,0.0847621783761956,0.042603421089974204,-0.02800983931608772,0.09182732175363875,0.02437229906778014,0.004048010073069867,0.0788579406507237,-0.09741230522278403,-0.03573653663438827,0.022460186514221936,0.010988878055081934,-0.12147750828063911,0.0950997104341969,0.21579626323559312,0.08408199685692973,0.14090843647022322,-0.13816903926300075,-0.015874991039549678,-0.0412963335892407,-0.012523210292883228,-0.025828545214442413,0.057366689500347526,-0.08442020068555785,-0.05579621321721019,-0.05870749322794248,0.13597348920836713,0.1866901577559185,0.12057007561421654,0.10797359846388838,-0.1941374060234264,0.20430131484021788,-0.1250231090397848,-0.049318028107809955,-0.13515533839093308,0.020225053954379082,-0.09676949472764923,0.16158260315690476,0.057802203638898736,0.1512118789508231,-0.04889738583310241,0.0804881509628397,0.03775438821020865,0.19496177546290866,0.06942000447444614,-0.07172086451599456,-0.08479999471761539,0.05427133842450219,0.1535791400342585
-0.019057388696387147,0.015208341409126478,-0.1803699265161113,-0.048629897537336236,0.17169455725975763,-0.018903498400528983,-0.04371114657697486,0.13168424237842008,0.01796872722978589,0.009106497050762765,-0.20791899843310868,-0.07793665443052711,-0.06734666588382265,0.028001994681647158,0.17165197119138254,0.06831081701923773,0.03198712865934557,0.07945687350781584,0.10834985514076179,0.014542465560713369,-0.09062426287247079,-0.0736928962011865,0.21255465016221567,-0.00823600381074578,0.04912961547935552,-0.10361260952827088,0.021457304379788725,0.15009047894165178,-0.09750999723784076,-0.08458960092743271,-0.15409621841215754,-0.10221193191520386,-0.2620616656861143,0.009961554410474858,-0.02959281367586127,0.054444597835062,0.002516701067307746,-0.06533170407110085,-0.22001147336762894,0.007343767620201324,0.21468994040233647,-0.020042535675489782,-0.02165612995287103,0.026769665238616444,0.05080908454627819,0.21154127873862827,-0.019023033183961494,0.06809498156926948,-0.06289897997712089,-0.05847914753105587,0.03614636665053651,-0.024906112505886716,-0.023455520401598935,0.0536640526288006,0.005641174681121987,0.09719981933351798,0.13511745326530306,0.054269711986834925,-0.053955271162490694,-0.016773645072866404,0.08711435769906088,-0.03456984904947399,-0.016787631361522844,0.22026299474032332
0.04236970426835794,0.07107850351244108,0.17148819837698845,0.011566159426167847,0.04032143185957193,-0.08241496693899802,-0.1440073903605915,-0.04908998872918375,-0.0056560407924744404,-0.018824829523346853,-0.06675395563711085,0.07435552223304025,-0.07070416174034613,0.005584601249871465,-0.12282115807127275,0.04902286006796702,-0.10216599092359391,-0.05400230423015975,0.023490096436154163,0.028483428317440086,0.05885050018842981,-0.1057841022324077,0.033421995796524204,-0.008248824180462465,-0.21242577760881956,-0.09386028758790052,0.08085497129946445,0.0027792611243774774,0.13696213240924032,-0.11746973293444572,-0.06937935798223159,-0.0355024865466569,0.08174776074994221,0.0262820404606416,-0.013837935630876368,-0.003245526803989799,0.04880886989351405,0.07393514715564774,-0.0234419034868133,-0.04354535908581281,-0.03231464646843973,-0.07736053748592885,0.19364658307075916,0.014455239984273513,-0.12633458214615487,0.0445985043205337,0.18761397830035695,0.08244064811629548,-0.1971010219055127,0.0348641578894344,0.004521924928091706,-0.10643663645636632,0.11040172094364376,0.1469455797352171,-0.1310412346938463,0.0164760674928761,-0.03243071930801163,-0.11632529095699887,-0.05597947000362598,0.0004537880808966763,0.02038861389804645,-0.04119263056091234,-0.0749436432407277,-0.12621411453082126
0.0509551229298536,-0.09514299008141314,0.10127665081973221,0.03050129038266923,0.08564287083882427,-0.06302646023977201,-0.0006551896075528933,-0.21693457260013896,-0.058075591644901836,0.036435868397156713,0.060116284159107275,-0.02400594230019261,0.0457890927460796,-0.1437879251817199,0.0033754440110851888,0.20879693958210843,-0.08102508445655132,0.19981459796677103,0.019463449805855543,0.27506584229510067,-0.04255581414487789,0.05173022230980578,0.02121476657156177,-0.03999114324602694,-0.028975338119123475,0.19811551683579778,-0.02794352760619407,-0.08030161092570146,-0.011059546702784797,-0.017976930511221078,0.1285729344907733,-0.040469384092310226,0.01595178419446824,-0.19983207031871275,-0.15383120617279933,0.011679813037356176,-0.14043211894162827,0.05268064818216883,-0.05788244583722335,0.13933757179501297,0.01288056705907647,0.02303211977850913,0.015359680856297407,0.12446302279685409,0.1426722980699803,-0.10236412207836364,-0.02021434840225496,0.09190292905277123,-0.16233826889904876,-0.003463804509318864,-0.03363355304810007,0.19071274029854732,0.06067649410525481,0.03464975514756,0.00832612043312121,-0.054298081200906345,-0.0014987331524936387,-0.07475422036846226,-0.002953957710942998,-0.011433573338438432,-0.15617548024319722,0.011365929103556468,-0.03237625812942435,-0.20474308279940112
-0.06521017068781836,-0.24973000761093364,0.10663613138312962,0.034167955816784806,0.010593142588359946,0.033196848675887645,0.021295332432077124,-0.09916461994914616,0.17504502607524275,0.13224608950255232,-0.16296317166685653,-0.1754129167459474,0.10736822885837033,-0.08242903210167919,0.1694748628585407,-0.07516921398160799,-0.12405895984070783,0.10465134091331407,0.07913526219910239,-0.006033932944407925,-0.05814586047789808,-0.04229430817689454,0.029162807323522413,0.2534611355397162,0.06974554506384381,0.05339037411904262,-0.15062421306806337,0.001349853466653068,0.1260619424114466,0.0627162743041879,-0.18899677325477626,-0.058769586075693804,0.21078510417268764,0.072472609231845,0.10573415559652642,0.03421976095463064,-0.12919837588539898,-0.02536656594300933,0.08386518316835156,0.09310872823925116,-0.04570395401599932,-0.0487981288322857,-0.042775317409602005,0.051708969011970134,0.0035197515303687075,-0.023443056717650748,0.06600876074152776,-0.14015973058440215,-0.11604890533422159,0.1525868496909243,-0.02782001134841839,-0.013794862528416949,0.2225009782671378,0.09473125764666751,-0.09339702334417982,-0.09152864340495297,0.039868464173847706,0.07966655070462086,0.06101640008121195,-0.07877138800759576,-0.17857869088265924,-0.16077008987414834,0.03246523129685041,-0.06007845936197298
0.005313334551967878,0.12521896607508817,0.010882180743174924,0.11512751561495459,0.02741167623473797,0.08516243743511114,-0.09854124677727072,0.17698188098108042,0.11465048777581394,0.031976198180461594,-0.12565079666788598,0.05316500579066527,0.134927851385748,-0.047918121759511705,0.22887975936972224,0.02382899464976014,0.036724225741623075,0.06988173583230549,-0.10424714315827287,0.0036790743463784845,-0.06634203324753177,-0.016580246537293546,-0.048814586169946245,-0.07704203514202825,-0.12228114260629604,0.060699096940959874,0.015620315604361366,0.05335094734954215,-0.07910643909764466,-0.0692416326394653,-0.07068895256488991,-0.03264480436912189,-0.046845477325698194,0.00495548436749068,-0.037789327571538245,0.10214917133814279,-0.09647620650927928,0.06948785179400989,0.11347296243472611,0.1103596479346387,-0.09211523210743996,-0.10306039355834938,0.18163531891729637,0.07193261795436554,0.125034275189639,0.11411274011619327,-0.030000890625256512,-0.1824142728813265,0.12846820239724982,0.09547283541066012,0.04650980491889145,0.027104345843302027,0.007516025539316626,0.0916400974915961,-0.08049603885833073,-0.10910764300004412,0.10069676877867484,0.14492999497870054,0.09472244197022905,0.09708779228924645,-0.0724994181367724,-0.1997126140779032,0.2156354877575784,0.003410888869531045
-0.12119748498262783,0.003461701025503957,0.10910750686890745,0.11279931165668529,-0.10366539777718947,0.045631617036991166,0.03000043156641249,0.0615753156385558,-0.01601805962673572,-0.11135447707385115,-0.09367718910792446,0.005162676555785842,-0.03895285890859751,-0.035740068318073526,0.0031675031532268985,0.0027350685084881437,0.03596266113551656,0.14237231449010063,-0.028302441242581407,-0.17758191937041204,0.06374445715880318,0.02637167946320782,-0.004228828447745036,-0.12139973750620599,0.11685108873499384,0.056084377094927154,0.08685191405455818,0.07365590152124797,-0.0485400631356078,0.09611226585441325,0.011890842949920294,0.07235154845943098,-0.02789685548154157,0.02084233728715588,0.04134594856182225,-0.19248713737753412,-0.15697861791691814,-0.12981450920367302,0.19424831181585242,0.11059350408429931,0.04285842540301907,0.01931747586443691,-0.012391576252213703,0.3460123917004513,0.07717711392952098,0.03581889562034904,-0.077169482485926,-0.10646752159181645,0.0777173523782198,-0.0018034909846329113,0.06419070645020691,0.029522808466483932,-0.1741287057363273,0.19119641009762436,0.057223927864362395,0.12503955185750282,-0.06543131003452406,0.10728415923809922,-0.21532633558142866,-0.013608295743931268,-0.10718828936169492,0.12038063343342001,-0.07934217813606026,0.028256499985857938
0.11144002813787866,-0.19722529974698322,-0.16151459494633633,0.045883350232577357,-0.06255951424082422,-0.06136440246169122,0.07949425459953326,-0.02246514533868789,0.2696615524276783,0.027858578900075166,-0.125433446822191,-0.022317332520429105,0.0842795006440436,-0.054511322329127636,0.013400883263787012,0.014616627602442936,-0.02323354643459358,-0.10540225874832504,0.08115250729566506,0.002803016715052009,0.17133360042906073,-0.00992839084953033,0.018922694967581748,0.03657988454410989,-0.03933191963682587,-0.13066417383024473,-0.08457146446190643,-0.26567979058851393,0.05024914844908035,-0.07079714168831135,0.10677553402343581,0.027914503806497633,0.08376844846614939,0.07036652063348385,-0.028225078375475582,-0.13376846842299978,-0.03280909496069997,0.05440077364799141,0.05542436111756047,0.051701245079806835,-0.022043267340101994,0.13702415659184308,0.08592725247586874,0.049624421895603496,0.08751633168683215,-0.12757622499543755,0.2061985411148672,-0.006366871792896827,0.04415302936454151,-0.02429215810882045,-0.18402756030650144,0.04537001513140648,0.0887184058116831,-0.05114773898764605,-0.15411585252401516,-0.12898098863353186,-0.06483176330094785,0.05507280342103071,0.041461830609111405,-0.06552598493076069,-0.04166486751345303,-0.08332961317422301,0.08697522772310436,0.024748832058633013
-0.03657185594819468,0.2119447757368859,-0.022796756720202427,0.006420222852479971,0.08405072599483349,0.054404267901586645,-0.045342997190653066,0.01580801876420532,-0.015352540933672765,0.18824594508386971,-0.158524501288007,0.09564310981163934,-0.01676274613027789,-0.1647701040422901,-0.04421051919163696,-0.15131121107943601,-0.09869019695941972,0.017186723772200728,0.01806048309456913,0.115383776492536,-0.09287602356846941,0.1014779177723036,0.05984947137901885,-0.0010369775827694604,-0.05147801432029925,0.012891584083225044,0.2023472948284411,0.05890972316800841,-0.033796221585099005,0.02825938623463203,-0.06108905069592194,0.22102353345382678,0.1874787881342887,0.018751165352562875,-0.006962025975241146,0.02020088434245791,-0.0069678463659611075,-0.14484079549271517,0.022818546911816638,0.040606977516916554,-0.12337244780756998,-0.0245036336143663,0.03507611090284953,0.09998490845338193,-0.04664009856802321,0.062253172907588965,-0.0690610272333558,0.18361803030716026,0.06004155926336749,0.14262322150982024,-0.1942847665817996,0.005978102689986956,0.03258111621609584,0.004755683903984487,0.12896818528818552,-0.012505230204922509,-0.018801488465727646,-0.03257695003065963,-0.2173151642001448,-0.025444957295884515,-0.1276891337020798,-0.0293243456146752,-0.19827970695712688,-0.03811887508218386
-0.025982145672081805,-0.1793726860742333,-0.037493638507661,0.03060783511829488,0.054595813741660386,-0.10169368385835956,-0.056251232775031135,0.016582369338467084,-0.13277887961264012,0.12680460796278234,-0.16045389708619426,0.21046884325015705,0.012545704127658942,0.21141313655447075,0.05952151549116347,0.019388050135579493,-0.13858955154830663,-0.09297202043793995,-0.0710756735384804,0.24259015745857085,-0.11038808831172867,-0.1532339411615608,0.003967215709359054,0.022672808760091465,-0.14241070352380603,-0.03641504939833713,0.12303075026151791,0.05627140244821349,0.09933633838508493,0.10011912782247001,-0.08303654488636415,-0.12711121163506015,0.05315168067881254,0.17079042635208597,-0.011691098472720533,-0.1772773144574459,0.09266192425947867,-0.029459373559362418,-0.05529287745196609,0.05892240108428068,0.09943659836983973,0.04509285299962659,-0.02071256692122189,0.0261139355695469,0.0034718851498351196,0.03194754076273047,-0.0977528072484341,-0.045149900442081184,-0.01369351830929215,0.02427940625671891,-0.07692401901623414,-0.004699736403395969,0.000980918661565238,0.10148423949465442,0.03748139594535032,0.1692178246874917,-0.01896725532075912,-0.038894641704123344,0.02340555848663607,0.05224464747628939,-0.05396718055918594,-0.11851898521755443,0.07534787625873302,0.05334377119184278
-0.060666163188283606,-0.08289836222987892,-0.06812995269658449,-0.011767987491832861,-0.1665717687834882,0.11732858615846156,0.14193719823216502,0.2912669420113886,0.08510361422134301,0.11445374769936308,0.051879299280328285,0.08993781617208586,-0.008825318635697492,0.0691535522207554,0.08227668538869097,-0.14355953708551947,-0.07612155208937589,0.07055020532110082,0.08843623806432169,0.15738042497555907,-0.08387263661297217,0.013892862425490787,-0.06974477664553268,-0.05682465659318432,-0.12512977721265114,0.10986571672195396,-0.2701456643104319,0.059112143328288215,-0.2782186688553285,-0.05346498043020789,0.03303585981139025,0.03195389128721787,-0.05400089149091082,0.036449552853673815,0.08229467684173097,-0.10647955334180421,-0.13415969785552762,0.0009618489189749934,-0.19372942017990746,0.0006306931120469892,-0.08975987306501115,-0.12127006893147033,-0.07370148866722491,-0.03405807610966344,-0.13977399254790313,0.08927542800878441,-0.18832028313236765,-0.09537182374734672,-0.0463377190166039,-0.047750163421371145,0.01998493356503913,0.13791014015230524,-0.10565782643624869,-0.07097606144073816,0.1066096549128725,-0.05425167332825527,-0.06955299437947289,0.19925935091066482,-0.029985165805714382,-0.04256084337148335,-0.02386516094587385,0.07794789086069093,-0.08113269423656334,-0.09539690531271376
0.18276513072002504,-0.023247542419035986,-0.05085260849159906,-0.11977270231514547,0.023216630889766925,0.05269361438474307,0.06503197192840647,0.11205981090395044,0.0664289205101412,0.00678405308184013,0.07423913332211078,-0.06304759722172625,-0.17007657109124574,0.0961015080061578,-0.06325044172472326,0.04583975962023423,0.16068611633438298,0.13280142969062486,-0.015401742431255007,-0.04999653997129244,0.08262955791574633,-0.08142342224569665,0.1644243632792699,-0.17455109426235976,0.15297951312012095,0.104473943033495,0.14983324891591235,0.029939803341807243,-0.054375005332458454,0.08407729371013407,0.1091425578187385,-0.01567620450960509,-0.038113951752290744,-0.14969541707781217,-0.02926269265834713,0.10606683594848515,-0.0627937134693004,-0.031875899996561353,-0.09135801457544006,0.26385502126309035,-0.11000264995464118,0.1143817917576645,-0.10359719060650241,0.0906680407153257,-0.21219529375792115,-0.054258108363128436,0.1444954771781382,-0.19707330271037457,0.037946186640887974,0.026746254964815964,0.11710790759145107,0.07306473188067009,-0.25356878748639655,0.0016335806826141463,-0.08680717215249809,-0.21111070392324624,-0.06831453403781447,-0.08216285686658592,-0.017960190799552894,0.04958143246103897,-0.08350751651397248,0.14247696900138837,0.05271844326778568,-0.09449359237272804
0.04453588262922072,-0.06645242370920287,-0.12367601316034232,0.06251335705430437,-0.03021115072667211,-0.03658657274742538,0.10473056662354158,0.07962691113269199,0.040667311598516116,-0.13711378974683827,-0.03477821470737008,-0.02803611657095515,-0.08513116627607073,0.08381180002860483,0.20370577660547498,-0.08233684723010137,-0.08641320923280305,0.06427519275971827,-0.14995731974895285,-0.010530378885890541,-0.14724262343150393,0.009798747929813043,0.13425974761430837,-0.01734045187861633,-0.19150842105619853,0.02097589560232168,-0.41032677687639885,0.05579281347415576,-0.02057638907827006,-0.12800107835979224,0.05951744321044681,0.009178430378388395,-0.032929092736216616,-0.025350930446916678,0.17143575654915,0.058660971909225645,0.09556594839439263,-0.015581207861318872,0.06613375265408744,0.19779268836449987,0.11547513897353648,-0.1699659000531036,-0.09342815843441886,0.13659178643385247,0.08358438035620697,0.01609873729305869,-0.06299139022371882,0.11109754378543733,-0.12478071927640022,-0.017268158550175505,0.1958484749767599,-0.048118581365533535,0.0484575609838223,-0.08673432522547024,0.1495440972797946,0.03127374072806438,-0.11032346968895282,0.03172559086174403,0.1501322380093727,0.05521996673484119,-0.014369305998171288,0.09354916027019423,0.12097077719864771,-0.09271841533802885
-0.014695914146359354,0.0046151357454171146,0.10273511796614986,-0.03934083360282273,0.010581828271307839,-0.018730176456525607,-0.07453645600305456,0.028268856260101075,-0.06389497007874179,-0.05154042278937596,-0.13867467622752797,0.1410871219977656,0.11530500558865518,0.08983793396739238,-0.014497120617251039,0.03336270883989003,-0.11986705626821176,0.05865999337114321,0.15130902955455877,-0.0061070727405878236,0.004911071064591804,-0.16921812510416667,-0.09395661330403601,0.07145061023461413,-0.06616448562562566,-0.008472318851298916,0.04012179144765607,-0.11806761282249377,-0.0034581208707813067,-0.00429524156394916,0.1016334355932818,-0.01798060278525535,0.049092335758010086,-0.09078635315719098,0.20203252768327587,-0.06528743326032627,-0.019588379650525064,0.05356069445741232,0.10323862737583944,-0.11233435365155967,-0.005529151336451318,0.008838867283964982,-0.09779069705239017,-0.03892455795453043,-0.03794888085615025,-0.08648045878172583,0.12323752081230199,-0.016423063947141436,-0.08843638955005417,0.0047500022701109125,0.005061545930109879,-0.08336403474075237,0.1082782979141175,0.2424585847526248,0.007136924704914069,0.03584836721498657,-0.050420201545606086,-0.030585914426027507,-0.10401186575748755,0.11402105810194184,-0.04837778224919231,0.07577138700281348,0.12563355922459427,0.06620423848080602
