0.09788223807051324,0.09966096690233875,0.13215467938051184,-0.05141730155054498,0.05215347313593141,-0.07777141170466424,-0.14192748087348694,-0.03685144602059311,-0.08255672368758737,-0.12878514114122877,0.04970115523593412,0.045513700112089994,-0.024187131713948665,-0.058450240522004815,-0.007339431439963304,0.011885452294941076,0.06006151366275217,0.052884050329987525,0.0951691231512094,0.0666361075223854,-0.05191674282075707,0.09250175190133646,0.0688925582935153,0.14316822895484294,0.0767733529074678,0.1431403534509272,0.02675280328672984,0.011385938814139426,0.06490955634748967,0.0007388502017389442,0.1377135094042192,0.045312630898607396,0.013800477344432389,-0.057910883851570866,0.06556467889435812,0.024539137767904513,-0.143818934997711,0.1114717893066559,-0.017627795375075948,-0.09009117418847021,0.040498445879918944,0.09205485679180808,-0.014711910251819248,-0.009952597786102465,-0.0758809679051182,-0.08652651335930173,-0.1468202501282123,-0.07901499802810802,0.14294252029171423,0.0075522841824711695,-0.1374841222489574,0.0988428222870266,-0.11332654180014208,0.07198837641222149,0.09883298311449701,-0.026127937296623157,0.10729893435915261,-0.06068723213205085,0.1528998636603448,-0.10725544512172827,-0.07554576573253541,0.06942541210098378,0.06680980116904849,-0.08444499605531863
